,x0,y0,z0,x1,y1,z1,x2,y2,z2,x3,y3,z3,x4,y4,z4,x5,y5,z5,x6,y6,z6,x7,y7,z7,x8,y8,z8,x9,y9,z9,x10,y10,z10,x11,y11,z11,x12,y12,z12,x13,y13,z13,x14,y14,z14,x15,y15,z15,x16,y16,z16,x17,y17,z17,x18,y18,z18,x19,y19,z19,x20,y20,z20,intercept
A,2.6836207979761224,3.296939910695565,3.002334418226043,-0.13334578010540216,4.197485766313523,-0.9283934154554145,0.6349653677851357,-2.3263745734720773,10.311402630897568,4.382930637130517,-14.413380568282935,19.867251790609682,3.6012091927697707,-50.33515484607288,22.489792665622375,-4.089504821552046,4.608571818758899,-2.450139765217028,-3.818624224976894,2.466839787596954,-11.020779614067306,-3.0104565948653734,12.793105706482255,-2.1264379641598943,1.8491432934924754,21.85064932341099,23.87452668003302,-2.9584711975833184,1.9281743976149588,-0.01376343976696649,-3.1101194228757794,-0.323707543223458,-10.231158069522602,2.652575576035779,7.604977066483498,-9.563984799767574,4.5514008804544765,14.241215699176061,3.7700093582897027,-4.117167234016357,-2.8803450570820806,1.974629103584609,1.4296517223695373,-6.473562462252107,-4.055052081914772,1.4301879703880893,-0.2057890300228448,-8.96340142199144,1.2563547465306177,6.317101219331196,-3.7088300504406067,-4.489912356217948,-6.644550446320195,3.8708909737963353,-1.6083089034545133,-14.525839814182119,-5.6447759260954005,1.658804991487754,3.521290062421866,-14.02193261906401,2.3225540540595357,23.9638199784498,-3.8761014376963527,0.20723775398140112
B,-0.5364255752655503,11.815623817722994,0.741115935875223,0.9020976292214995,12.052926325577893,0.5217930695373948,2.3419770351366,12.207365773051325,-4.525477952866605,2.1325012337953537,10.194861084658823,-12.668649169174321,-5.093006719062334,14.547592679107838,-16.44493255313934,5.549219509806448,6.722919174439485,0.27764302682860886,4.0222800949293775,2.257087615162123,2.8120400039336735,1.31066802818014,-8.446971786222486,3.3469166455061,-2.6003216161712674,-22.719664148899845,1.1462587534413398,4.387760621576203,4.983886208149927,0.4085969043833772,2.7892751042032056,3.731296656428049,1.8810960930905958,-0.2305069247714875,-6.118436127939772,1.8272140966206916,-2.326198889482028,-15.998440294177046,-1.4630529679460067,1.8709320115333787,4.904407819534793,-0.7812024189829081,3.1662686180595294,1.7225410754430892,2.526942659113521,0.1562539894148644,-10.506499356434714,2.2067724581124546,-2.0787587391965237,-24.42997659338749,0.14656073800255062,1.2944864392380613,6.730451536675021,-2.3613190929183143,1.4119300043729435,-0.09597064327708368,3.0659811032797806,0.3235318090361487,-14.81884448864182,3.871524661333639,-1.9352979164874173,-34.01507161581856,-0.06252708449167968,-4.380105502665605
C,3.692299177356339,-9.897077891015876,-2.194662848308427,-3.5799054168010307,1.9240920409730966,2.7265369454882533,-6.832636253726778,13.204010711391014,5.763752046962192,-5.331380864633813,27.222963107579133,10.194422516995358,3.448687520904404,38.51341032582065,13.33794437960617,-4.8198121139966945,1.0290800194708347,-0.6694170049189948,-2.04770183626602,4.3597930091191115,8.0559005335615,0.0010043236927685137,2.7200763183443226,10.429557282623792,4.89466347936426,-0.27745928658384506,7.718384589120169,-1.4268704251128295,-2.6573113071526864,-1.0197955028517478,-0.47370542810804495,1.2441116178893858,5.80534248362657,2.5667540771232438,-2.8954096884778373,4.581563189263833,9.185639295957726,-2.603677834318787,-2.7535439951778744,-0.7203827823739767,-5.356254515042212,-0.7192796494016197,-0.29330000740560275,-2.9592400443863935,2.39726557320919,0.9545466536360548,-11.090420584528616,1.1408776947753347,3.5527744338917344,-18.10811178328815,-2.146523285462642,2.672255805328567,-7.437458595417472,0.7269345943075215,2.707823787664117,-3.3231612342847545,1.3351871566789504,-0.901122342697601,-9.96707841363186,-1.054429217723298,0.1766713119648741,-15.372983523612096,-2.779626295274651,1.0908889795510766
D,0.08984933742551897,11.837784140568216,5.856780460537187,2.246952516486208,11.493548514991142,7.692798881305865,7.203542645885169,12.286901261349247,4.205622759919147,6.142135838808394,13.662297506046585,1.9271119263787122,-3.2264727105142286,11.880950308815608,14.031677473481578,-4.195192648876362,-4.717996491637794,4.266808599760124,-0.6996174389376013,-6.2328338787904345,8.381614987131632,4.841134736294279,-15.479653534129827,10.3106976481055,5.172987396416271,-34.83695545322778,9.22432137194894,-6.424681601482597,-3.2284860850349517,-0.45055683724127515,-8.896171683787914,-2.2861409490787574,1.645085548978515,-7.665395580248807,5.363150181033199,0.5249330545093877,-10.06415436339612,17.21206323272893,-9.001869145217189,-4.541728755522411,-1.579854626897992,-4.31117124645013,0.5479221262799169,-1.543908619801536,5.265805101756257,9.449038308704113,1.917657712242482,7.090181936755647,12.798660404733734,11.688430388794503,1.824007931857388,-1.3250643388498418,2.9040791778871364,-4.6991587977405525,-3.465839181080816,-4.484445457149058,-0.46766943694663443,1.9476610813715796,-16.87729781096994,4.9346651034538604,4.998212414023944,-21.356147666564166,2.8222519145236724,-1.269304369622242
E,-2.59935845894848,11.800317320724226,2.373989692412899,0.3118577630824921,9.58017636652533,1.1532206532517073,3.2566973247942173,11.225727773486312,-0.36667970786863785,-1.4466879029907367,7.770659111590703,-11.583012266121472,-11.142801355369999,24.836738166169237,-13.04495611665099,4.693900939926222,0.2868130683333181,1.7867002165436996,2.3744059293522684,-7.780484503754029,-0.8775363626834688,0.4487836611166395,1.6738555341525165,-9.223842709483616,-0.3031514719321741,27.310060884386914,-1.0238490764495254,2.494159684706092,-1.8744237147918494,2.31781714668124,1.4469507376002715,-17.356514532424605,0.5220432840483531,-0.9830909318640352,-8.902260995890556,-6.558886546562536,-2.6322449176668083,10.368209368343509,-4.947915679707746,0.4826906298584887,-2.5634601439654605,1.7887958605944962,-0.7005079556228949,-21.616801468798297,3.128826384507386,-0.18750897260754193,-20.162718541929845,-7.183336931576528,-2.5492211789757016,-2.79721155474232,-10.918014087859964,-1.137996552895729,-0.18766420537252454,0.3709227670539098,-3.940163107920957,-16.13822656991373,4.651305882563833,-0.7622687433961889,-12.963615062906536,-5.793393061823693,-0.5233127690106935,10.780299879201888,-10.66292112860502,-2.7136258982008536
F,7.290061190902618,3.962837170883141,-4.671121957959911,4.055368380594092,1.6389391719807285,0.7203163792002404,1.8591263986189688,1.3043044694037125,2.824963949896883,0.41661764489607506,1.161059179834239,7.618654179086367,5.2272042510498355,-7.409093857311702,6.543459812308807,-0.9841706818623107,3.5190674036125995,3.1634627143181446,-0.5732651938770543,8.581540231042514,-4.6130675857905805,-2.493929985274472,17.732917761755864,-9.412405764947144,-0.3633599804512673,31.143907102481897,-19.574085288739937,0.11192274384704165,4.711142656566285,0.04414356720214062,0.42508927747452907,-0.05641166429423398,1.3786096207244523,2.121111735142266,-10.54329656549887,-3.0088510839691085,5.214576506932212,-20.796973096435313,-13.854646106640947,1.5569118884745055,6.5317877987619335,-2.1035849208194533,-2.6474261502822434,-3.5358412589140733,3.7626760992197963,-2.986718963634294,-20.194670098541387,1.628510242862906,0.28266547663411734,-38.41023707488277,-8.144998108500385,3.114227763617941,6.012358500175301,-3.536315376177435,-0.6382898958289372,5.849187259252717,-0.9949122255835972,-3.0258011276602375,-3.1868883786364304,0.1518230677305785,-1.4519086618173516,-16.832736873029877,-6.664500825627973,-1.1196001968560396
G,0.07260795124242804,-1.3510576751725498,2.429873346147562,3.486715535665003,-10.49923118008223,-0.531165365394452,4.90275347952365,-16.406802383521917,1.3396255616229094,1.2146091697232493,-19.527488765753585,1.9103331499239904,-1.441227848739502,-21.290877601183634,3.5636131163595177,2.461530557217886,-8.207864985225292,-1.4336376713352175,-2.696836980402492,2.1100140569647072,4.643090690519147,-9.23983581545123,-1.0721009910136865,0.8306157273069984,-13.006218739905677,-10.233459840995856,-15.614119414247739,-1.2362104208236142,0.7741662539536629,0.7812151388123265,-1.9973007437374373,5.060510724391107,4.486564577928269,2.772033742757864,7.574169604875295,13.803546599372067,9.392656277854016,4.95343879937759,16.09869903726332,-1.9569681994981396,3.758772647832932,0.7664075514679167,-0.5812595259377298,8.97899406909021,4.0232358422450565,2.212150318034358,6.478487355781458,7.65600658238112,6.893790670558392,6.997179423340142,7.518384115321971,-1.9504735167561782,10.386662663469732,2.246970342808539,-1.740618849908491,15.866740303219869,4.197413902688547,2.6135033516800417,12.175907314822014,4.721587754306491,2.8936899888198067,12.399061002054086,1.963527062971096,2.3487066400740177
H,4.084691032239325,-8.88078667550247,-6.243465568786187,5.304661794377758,-20.590955607915994,0.016635713909593203,1.749578018869196,-19.001769634089005,3.1873644833862196,0.934717926229902,-5.402054494662721,4.9841188717069755,-4.069780431094228,10.254895022746071,1.026483755847017,3.488892955407996,-11.256601789152311,2.1714355169263806,-0.8317988018129826,-8.48312540997495,6.976959365592882,-3.427659605918299,-7.932876996518181,8.661576267943953,-2.8187836300424185,-5.288738750962759,9.376493376123234,2.1641573317895104,1.336376202775844,-1.4762546172085937,-1.1852342477512021,5.888526346331332,6.838494500176432,-8.752671309200544,-6.268887498401856,0.8568376760535701,-13.154178338549476,-11.752320817441666,-12.543308377408335,1.8978765024194342,12.409472872344132,-2.8025461069069317,-0.03299562089994345,13.454999399404675,5.599674498670227,2.5718257480250366,4.840447468875864,6.887416987190192,5.253855458082656,-1.5475009284691987,3.0689376242315776,0.5535414880721469,18.25407802985365,-3.4607781284853463,1.945421334991644,19.076928957697536,0.592901149990055,6.004529134675686,12.654600903422228,7.461478004804916,8.44021076262277,6.981406985215233,11.114472869116991,2.712871523366813
I,1.8589966786433612,7.445555453407023,-3.812422472246856,2.8218469745253576,7.599459384176501,-2.519139060105972,-0.0010928970410268935,4.006572698732134,-2.606454696117678,-5.209191528980559,-1.9582065265628312,-7.795117311700024,-3.1354859284706507,-2.4652477654112057,-12.73195805750739,8.331947396860869,6.128200107799051,2.350090121514335,2.589415639426597,4.075620020937337,-2.4630682377086313,-1.5037672065389018,9.081975568437011,-2.097872537673984,-3.0645543122643013,10.586813775317754,0.510293981621728,6.826564590797027,1.7714974098366207,0.5705765476440704,-0.12667592019600762,3.0757011441146958,-3.61672080086384,-4.41937742045017,8.692674382307125,-2.559936886245449,-1.2126096416978904,11.114288830189068,2.2609222082877607,3.8179499531268952,-1.2780227798556185,-1.8027322571305948,-2.5231108755580043,0.8326164368252005,-6.626858379844371,-4.361400357301034,7.433557376464206,-5.442021097590162,-1.5316787185145069,11.8492986258241,-3.0734243217424635,1.519454234876761,-3.1463425398290408,-4.177734411354797,-0.9273991253449838,-11.209283042892755,-1.010232222368522,-3.9874947615155625,-28.95549561886359,3.561447471624747,-5.296880618388175,-48.47050258913755,-2.844509011985667,-0.6064061985019124
J,3.946899223283984,1.9352150244133732,0.955951831496806,2.6320721171462917,-15.172831724898186,0.1968769000743658,0.2638910067257478,-20.65892719761758,0.12452470620225811,-5.702160838006623,-10.776169982019844,-3.687415867474259,-3.733557129351393,22.87045470403288,-1.3309280054006978,0.13402916348296828,-12.550330430078239,1.7708318381027937,-1.5820676582649629,-8.349105511754304,-5.574037651279438,0.29898070366744794,4.648519218674943,-0.31595036407782356,2.1486221588919547,11.27613578715827,11.348052747505614,-0.6442567898332544,-0.6692427307637727,0.5009748568850714,-0.24050908816569555,0.8908126858083951,-5.614792497103597,0.3912928030298159,5.068081332998113,2.466899989058392,1.8150233205646644,0.42230936850361556,8.117564375753032,0.4969202298735723,11.23037988988167,-1.1277174984426537,0.6026304763792132,8.85226685751378,-4.353449951406365,0.6645735259791506,3.912185859829988,-6.505875852473981,4.741951643072868,-0.9257445575515084,-12.302423942887504,1.441860725185928,18.50626550356924,-3.8845257640055495,-1.2630905168714943,19.707718829528538,8.242381251493347,-5.658230110767509,0.9252642058233345,8.86252293173405,-4.650380299134584,-21.982431310784214,-13.210156298629437,3.049801634710171
K,1.7343247781939892,4.537688035848958,-8.217055755203386,-1.608108502458463,2.051463165292507,-9.423059272524121,-5.315636094960798,-7.720637658247118,-8.398439141494284,-4.660042127842377,-13.624078835153753,4.268726800341586,11.607883393935273,-42.90431255256994,8.744009777036078,1.0911651326344656,4.462314767066705,-4.971375688234847,4.635805295627917,2.2251337505392343,-1.366359491921565,12.323055947343983,-4.290294764053363,2.055220141727658,18.162638333080224,-20.85484519923249,3.920094241263059,2.119552634806129,5.672821280736124,0.272493564612698,-9.620879689330353,4.818230908006824,6.872909378866565,-8.931201906258732,-12.659739982477495,1.1655019541752853,-12.738130995465413,-27.667450807341336,-5.045066129367623,1.9940523510810582,7.9868962536783945,2.318168754489233,-0.13720773878008918,8.017116999565985,2.4309152361639548,0.3347468096138971,14.321752122414557,-3.315173502045794,0.2614500886015962,17.800934302278453,-8.361818471763758,-0.003300678384128085,6.196193440887468,5.571595111070299,-2.2255298246983495,6.592758170747103,3.5070554675541565,-3.4871425133352205,11.431093922680237,0.424651634027475,0.9160891739531309,12.863264465075694,7.546180129494961,-2.3136842160492233
L,-7.496550769642,-7.927789837744709,11.431963411466102,-7.898130958052202,-1.0363756427979025,-3.21524768989457,-6.097485724154951,8.64363497509274,2.888046999280803,2.6839074222249177,11.603462347552115,15.108758545957045,12.640115160469387,10.443300442565395,20.127780307965644,-1.0234173074639537,4.108490285056082,-11.140853307025443,-1.8391370283023225,-7.795250303265262,-3.985882624981971,-3.1669119701244153,-22.911469814567706,1.3053930684095671,-1.7614894161041288,-49.11927336459567,-1.8755365714774621,-0.6036292024119101,1.1531269831761473,-1.9926590905290376,4.126824286917185,3.409989676452973,-12.07150309188625,2.4818460043301203,15.578013383592541,-11.026959834526398,1.4771749499761944,24.468479834631527,1.3572939684871463,0.17413644178001167,-4.584704863928659,7.9427278026529,1.3780596741432711,-0.6202667267971372,1.1569029694418003,0.5363738794789474,5.961148097333718,-1.9151054916064931,1.6919843612108123,10.659855616710548,1.6716475874966759,-1.3637291289659808,-7.289379953688006,15.450949746591293,4.137376178770904,-11.735020802135178,9.825335039427136,5.309816264569236,-2.190428239994833,-0.12939264280321497,0.07410521029113572,10.872255242879925,-1.8357665785710733,-0.9915672040909499
M,-0.626344935714935,-4.468913078755632,6.136658203778541,1.0319804671766195,-8.866278842634113,12.844189648660652,-2.672668053565483,-11.945690697082862,5.271151633900941,-0.4599234634478141,-4.872668818503609,-3.5605419656201946,10.074729955635078,3.634636457834624,-19.26918616305527,-4.049201014244091,-2.8900921934595645,-0.08764153105913733,-2.9976421836165783,9.102639815049141,-3.142977330145874,-1.8247831277307032,19.08572466080707,5.432854779467181,-1.035051675901901,25.238838819334518,16.250152722426545,-1.1946527991729512,-1.728794365720682,-2.805799603117799,-1.738242137915928,-0.2536535002335939,-0.21546315723857457,-1.2568098526385674,-3.9491664872941667,-4.102261060882486,-4.072206778155262,9.78905217011207,-9.910867335306975,3.098387508234156,-3.736253826909783,-1.3655658169241207,1.1135889830107166,-15.472228800216458,3.0089975526790624,-0.18912543854803415,-16.503087095023574,-7.195540369791185,0.04897777160073187,3.5072860278900952,-13.715314624747682,3.5160078231898138,-6.646627285786949,1.7895738120470286,-1.8861375108353087,1.2600966278975332,-0.4483275251623386,-4.510658853513222,11.0456471395891,-4.314534652319693,-1.521344784155922,24.785079497157792,-0.20652829117015692,2.093191201430269
N,-4.081535413015147,-11.804350267877693,-1.51398770973255,0.023870809615461546,-5.936423185430348,0.3493416909411176,3.8623910995231383,-7.693173227420303,-6.987853336558922,0.36912796965242933,-7.501690221498796,-6.003433002189861,3.9381453884663618,-17.78320329229724,-12.39879121468386,-2.121986013364861,-4.529500280151218,0.4607814571146069,0.36860989597537674,8.913148244217716,1.380612100864373,0.2961394280123621,17.942469319193957,5.1380275262016575,-9.95015348213558,33.901390607219916,6.078599868074454,-4.111317144162878,-4.924316293740523,-1.1184886269797494,5.864700630097037,-13.010699663740073,4.578309177482367,2.0050817461303403,-12.523580454366371,-3.782594254464073,-2.9739934104255594,1.8323246597307596,-15.604948068789488,-1.153014939616404,-8.916126983911568,-1.4308874469452366,2.243625414539033,13.304679406006738,-6.0474828349079806,0.10378178697235854,13.538980522245138,-0.9691169132213721,-1.7005720596880483,8.603133982671212,12.807992000717903,-3.6227714332756022,-8.110751691445351,-5.352556712362558,1.7502943073056272,8.003754397668038,-9.280469641430512,-0.09222848864647437,11.87324735563757,-1.6943210820307393,-2.810312671842868,6.805011783359323,15.291626388723827,2.9958353284658155
O,0.9040597128105173,6.30722380597402,-8.105794422786865,3.0458883842168554,5.5397243857032565,-6.279869597486264,1.51331631423491,2.643188844646847,-0.6137467584811073,3.799887804734705,-0.20453747887694548,13.349883615204767,0.5152379078285921,-12.572500387681442,20.68422513886345,-3.22579076767671,9.77403173128303,1.1919947574337029,-2.057150055054959,4.862438680891959,8.145643518116648,0.6316151888091043,2.8937575545237153,7.81077244920827,3.1877086991695625,19.577651939001093,4.2627796720264515,-3.4525474707744257,6.685303183789694,-0.4485362480964773,-4.036769087126297,-3.011623981698717,8.365491431412744,1.7244387898523377,-6.1227999173151435,8.743085173844756,4.934340127889388,10.389881200702325,1.0634118221499536,-2.1227323765000614,0.5675246232233784,-0.5050358349472317,-5.210229000473769,-9.85032786223397,7.3995902478515285,-1.465572089668917,-15.880347946049772,7.785170407045701,1.2710527363134578,-4.708059700367773,-3.067686563948602,-2.9857845712701696,-4.960943531286513,0.8329030324376159,-1.1723803939543551,-10.198398267428415,5.7150593431496475,4.120961198301217,-13.930863937781337,5.212026042746461,12.847893067373443,1.4689026132046736,0.9635585849946307,2.2221064426941655
P,9.105599528201688,-21.791248443466174,1.7983431545956845,-0.29177958978384183,-13.049921387133814,-3.8073335804070827,-1.9209717269125384,-4.657216095047879,-0.022778974191853003,-2.07399691832462,3.770016637849837,-2.583613326146823,2.626218689421841,5.502701395230078,2.1899160415266974,-3.5402089144085624,-4.343359314133624,-4.462058826534554,-8.699505936356383,-4.464149775271727,-6.135520860206853,-3.5681705415689775,-8.484079442311813,-11.083026541960802,1.8831891740420534,-9.244924000927387,-22.40158543782331,0.30578231916660087,-3.6243818687464135,-1.456978150018694,-3.7193782138787896,11.244636829054944,3.4401193865931945,-0.6750580029826264,16.12152103572731,-0.14247767970587943,4.131902425343685,22.611850143294834,-12.347058876770047,3.6166731978389537,-2.3113649114282806,2.2745767679716304,-0.508221702458541,11.658067612467843,8.195177807829484,-4.530129294182734,12.06098817661827,10.139864045497925,-10.88441558930564,11.176957048517933,2.27199407827999,9.586316188344194,-1.3650860864872185,5.119884647221408,6.024073922741159,4.342092456095978,5.8807772116945305,-3.8840595096678023,3.774357795839674,9.372678091862825,-11.339169163404213,-0.7181150145740537,6.527441043352452,2.2840065143979005
Q,10.675550781320998,-21.862135093531183,-4.519798260549146,5.8285661739352514,-17.27914131666944,-2.829955699409766,-1.2408442149277334,-4.771570610478163,-6.018290609818746,2.648492398772891,15.063233899069647,-2.005704837003122,6.6613301655807025,30.33219531901852,1.0714320194031643,-2.4792528006011674,-2.0668124466015323,1.089707887977141,2.546118588302874,3.5919842803620488,0.9314663947014025,-2.331058681687364,13.676319150692171,-1.770455876615708,-4.8131938406864,24.36755971361455,-9.239157861870385,-1.0346766420035982,-2.0582267172102586,0.14409392141737942,-0.3754304486122098,3.0736649950221246,5.18625654131936,-0.8592463404362265,-2.2491765093147755,5.408227409625333,-9.78154819496634,-9.784642388781746,3.79252146554227,-2.495780093747508,-1.9206552242268289,-0.822348906435519,0.4916188348375123,1.0408019992594293,4.341018366487577,-0.8219319363149131,-1.0361311367274804,7.932573607090823,-5.160960047987714,-8.960457083014152,7.650242327292641,1.235104841031756,-3.1835991589806665,-0.5301973852443916,1.8910920311940929,2.384312503926204,1.8104911767910736,-1.1605432097954291,2.0701222692779915,4.9690102066003385,-2.1074093128677585,3.1596340849506253,2.582993012726457,3.43494113541439
R,-2.229730101099133,12.4136579394354,-9.831754529188206,-1.130754576419711,10.508294685512059,1.25441447459294,-3.551621813863523,8.723005457141422,-4.775938567483223,-3.5711315722215393,3.314527516276254,-12.896990655979074,-10.149543841652239,-6.524500955637742,-22.88603829955914,4.678054100644189,0.9172178315770675,7.444332611064016,3.9451853260205,4.653538842207228,3.587265892664273,-3.2622415775641587,-4.228940847915076,1.7496904431335931,-9.995364214907747,-18.15920670098068,-0.09159619584772707,4.22453902976976,-1.2330160025873662,1.6111716263096318,7.186327720074826,-2.676864558428948,1.5232011730953459,6.46636516859302,-11.930237148317843,1.7144765488708875,5.62696452183978,-21.761277345175657,-8.411388870034962,4.5441469501288,-2.5381446377787356,-2.1454736582136906,-4.164479014763929,-9.53761693008071,3.651735187044288,-2.6288718388612393,-1.1788951127720961,5.0528483705456475,3.5901735554382395,8.127651431004521,13.8014804246843,6.276084424631712,-4.442105069048641,-5.728935460925842,-3.317144697374116,-0.48391578594429346,-6.653725499259551,-1.7606231359303224,11.213635036609672,-0.8558543885719032,-2.011749346539572,17.271477665830524,4.582482001947351,-2.9993687180823474
S,-11.649943608521903,9.139432509860493,-3.8609507183711775,-2.86079945870579,9.418561965008413,-4.091602117234658,5.207571617369645,3.6915163345718955,-3.026441578102249,7.451476118432169,-14.607471216945564,-7.6467727417296425,-14.719113236521894,-1.795433091119207,-14.854589915467233,7.446767344261266,-4.583873771788594,2.8986073130636254,1.4290458626871683,-5.4900929261047375,-7.9192658467629045,-3.693390623440652,7.369351483258808,-5.803270232830881,-3.2766185327490964,19.19393231404869,24.618040728028777,4.920592892643405,-7.839611249629385,1.8373670104719266,1.353660825325547,-5.580914958824507,-12.93301233862446,-1.3151846590776397,8.819310109083323,-8.65783418224877,0.2910063914066028,-4.9986107570627505,24.273418132912887,-0.6835107685683344,-4.920353875056867,-3.346317881996702,-0.9370696088211434,-4.0429878557735,-15.781892282109268,0.8051742192595207,8.768706836693857,-2.91649455177322,-0.03883272412111932,-5.743453115841142,21.604327470098823,-3.0393855088777793,-5.81071017935245,-5.7747157905009425,1.332095503301997,-5.328983037645419,-14.589587696132607,3.6657555022715695,10.605375716899793,-10.033420708231803,-0.6634790572123034,9.264954937963928,3.7264544452039763,0.30205723274633056
T,-8.039864410688962,-2.0589224800298345,-8.502274198015062,-2.3120047420437952,3.0949281674280202,-7.125321453817396,-0.13093951471888435,2.084456760954124,0.6249762699481304,0.11046848988788419,-4.157788344149806,10.168367630647333,18.367275922766417,-31.70057957361659,8.117993135320846,5.462775294533277,9.640228640505203,1.3791594742870177,3.7520852518121,3.2546905099989547,-2.6106012056769203,1.5070170706781265,0.5897007279473742,-18.854128718432758,-11.360042825615135,4.189129440934087,-36.60964079144576,2.1887318338304462,2.553382853442473,2.7062127962574225,3.1530697817845015,7.773983176261284,-2.9029843126673947,-1.4288692645175824,19.64741062035182,1.7424513778288009,-2.694194863298516,17.781122178189676,15.02379978648781,0.9700129827574601,-3.041204739645722,2.3005376666249564,1.2219959746682474,-5.0438452160091245,-2.2064571429020887,-2.364960846594539,0.9294223013942278,-0.8834029337136593,-3.667020302794363,-1.468854755182544,6.334928871418992,-4.4234097820980605,-11.694074112323463,-2.537418959314546,-2.126567064116679,-14.589053299828887,-8.65843131393713,-3.6496393204000794,1.620987097373038,-10.19908809339129,-1.5944887426614383,7.760415022362959,-0.02195727474334268,0.5916612313015118
U,-3.805386927849596,0.5835375998453893,-4.150019954222389,-3.474620025694293,1.9332267749947785,-1.6154397811059444,-0.12739723236791373,5.766413848118211,-1.0659579520880371,0.502602399745324,3.6841458289556486,-5.122279931411533,-8.07592054419477,18.59076194946312,-4.1899172690326605,0.6447530132576011,2.62130546626679,1.5626648210878968,3.405951503744181,-8.126832939051141,4.471311219416975,-0.20234551524423056,-8.568716813604466,3.870315190929918,-3.889342069286377,-8.383050611450443,0.46419981484961254,-1.1900031756229354,-0.06326862490636485,0.9208961007855975,5.300392495121983,-5.720569460723727,0.4695755057331467,6.692503021058098,-18.773392755125943,4.067808689855961,8.216949453947123,-33.74293307123853,0.3543724920232234,-3.688620030768537,-2.531067405759617,-1.5333851324857062,-1.9632011055986194,7.951796957537739,-6.70404322756124,-1.4676256974925825,11.73625893714421,0.7497888701437534,-2.0699606235155015,13.513913607159276,8.233709506513177,-4.057833859906942,-5.062381804007767,-3.817305616644411,2.168039381990793,-0.7485005801336816,-6.99845073755335,3.6340992037756457,5.843252430377884,-6.61219066694192,4.028784973772983,10.570721946668007,-1.5483837026452865,-2.135040271634663
V,3.6783705702365195,0.9031958385172949,14.02326249234983,2.574541675065511,0.561237206715477,1.0731914397997018,0.7064768285378463,2.613513352090644,0.8427127732754942,-3.6772487460107675,8.998443582652666,0.6879844577535101,-3.3701704550497267,26.78133679561412,6.252056933893169,-5.382537414635195,-3.414436758631556,-5.157844908457802,-4.418468641909004,-4.736396102229037,0.7358144700987053,2.6439963878811406,-10.539647302291327,8.536849047056103,10.053907567056477,-14.764418820860696,9.590063547453473,-1.1944139071030258,0.8912631551892408,-1.4179792244865224,0.7809868543715971,-10.852075863481527,10.784349313955058,1.1625355619076947,-22.226796187511802,11.058485688652684,3.1472500111805455,-30.703846484438372,4.523872910154662,0.9772895551866158,3.1977653501354215,3.1363704472848117,6.087705358785988,5.5856276245023935,-0.1494096625959606,1.4907977628932563,10.165922475718583,-5.619519402959735,-4.335086770687817,20.076661377778176,-18.59203087034988,0.7425983845221854,9.21195074570416,5.067097453086069,-0.653130921986532,6.724949628834881,6.673476047913055,-4.118214839914465,-2.4269714493633012,7.181736422746425,-6.066365368673322,-2.332846927071259,-4.436717010784295,-2.0391518788962832
W,2.297852193135661,-0.6647238439717775,10.179345972955185,0.26631783350462457,3.517495349201274,5.010437534522135,-3.0362214478416325,5.779585220441684,-1.8298547642866778,-5.076534900534607,6.9257174884450645,-7.875946246480218,-5.679956390577524,9.13552724603843,-4.630676774654639,0.2713038698513716,3.0932732429966086,-6.274017423593407,2.5090364130466516,1.7802589561942443,-6.804044858959793,4.556116770452087,-1.6299091903708842,-5.954296590878123,6.8053105237141445,-7.052266528851381,-3.5188520913474113,1.0972150093190172,0.3307457208108904,-1.9362259690274926,1.8672122520317886,-2.3384717599429234,2.5988894600718817,2.4864861798122964,-8.400034439041889,5.695699539228053,1.7283564894269836,-16.90643485475381,4.611340523263629,0.7579592976573019,1.2643461035722963,2.586272498229969,-0.4964161620797463,-4.589290481158039,4.376900381976107,-2.5399081579532425,-21.627881793182294,0.4552159721022188,-5.993178245625863,-39.01706550195713,-11.215010879856889,-0.6261960559195944,2.013406239054604,9.01978866759256,1.8172065144700678,6.225932296598616,3.740061232444899,2.055248915611703,16.026621490872,-0.8298523757431303,1.0024589226029852,26.700211552984463,-5.7397651655962285,-2.1951180254679135
X,-4.092788553087089,10.662109427411803,-3.496103020755424,-1.2611079943206274,6.9975909938073295,2.5270545458803366,3.154127575742185,0.7673617583568083,2.7551867008179887,-0.8806368589123618,-7.724755643475122,-6.56054393454652,-6.628969772958405,-4.200486803693859,-19.089536821706382,-3.86252083388987,0.08418428091362926,7.455653553036468,-0.5236468262041523,-6.4717272872333815,10.518860673326202,3.3211688695536723,-20.84387658109658,-2.328632946486105,1.746327507160781,-15.924181154035935,-33.8772401270826,-4.052501925188109,-1.4198863683783587,2.4438491865662435,2.621315219232589,-2.9774383778481903,1.1375055333981305,1.5142026910364978,8.17179272071912,-0.6654526782698504,4.041020276901493,21.73585690173679,6.9208681559306955,-3.408147548990588,-0.9865616642013982,-2.296250958609706,0.4004409157839352,-3.783495779438597,-4.65213893351476,0.6806814359564741,-0.4106227397457632,0.15901037638607432,1.0472412542826952,3.022194871488206,11.080639357599393,-2.5081000982503046,-1.8922757481127592,-8.606692400947852,-0.504956914930587,-1.9708942191208687,-8.251184688097608,4.008753526057205,2.730864591707806,-6.313675688498505,4.886732863579985,8.240485842244784,-0.31452855663164764,-1.874631554829221
Y,-1.9375132523952063,6.973309775840995,13.121492004139911,-4.916672993133278,0.306885672993237,5.794831279517235,0.7362190771040497,-3.742480065730971,6.446186875933957,9.929860032051256,-11.0759924790024,15.998442461997222,8.737841010848838,-27.228141225522055,29.565028850245866,-4.88475954773728,-7.87587740756545,-4.0399066320139685,-3.229353003035669,-0.4633592423172823,-14.835072958826078,-2.857636862438351,10.18926125631833,-12.288276284142217,0.4239187458863618,16.52428466011017,6.192229045186333,-3.2210209272105037,-1.9509382279818923,-1.2872383163436256,-2.184132206815673,3.5506873586243586,-11.797997666922328,0.07496997396753129,11.868810896523776,-8.265441457822456,-0.005049679036640257,14.003348377229857,1.5838138568081552,-0.38008485204329334,2.7565008864590985,3.182309068131034,0.9638029255673771,5.67746808134838,-3.6289657122445598,1.0229673544220335,8.574598633814517,-7.316852823255586,0.47213812276364087,10.181296926693173,-10.337815148596631,0.5455547683213428,10.535227167364814,6.459366754903985,-0.2661106219675178,4.028937095530305,10.74507862972085,0.3604544366012597,-15.371926686654874,3.905584462189937,0.9398993037890739,-31.195150237900858,-8.148163531976282,-0.15397447806550166
Z,-5.019340946741211,-12.9074224840807,-2.9316995078557047,-5.065508017094855,0.015122950367871393,0.4848878761543237,-6.465118815769015,3.977082903880785,-6.3476033526861935,-4.6303993641794605,2.474896084377368,-16.094034691026046,-6.979872196119214,-1.1149688603373562,-16.873902216622398,0.40401560242460316,9.441048030345769,1.417018849330956,4.4368760080922085,6.158630079463386,10.707634779084357,8.40250699216552,-5.968496196493514,11.780110314068391,11.909228929879317,-28.301910505414423,9.251171717227777,1.9042749362350175,0.480017250602595,0.8648672576389301,0.7887431340662142,12.682934695557288,-8.130211075671331,1.4052151216693987,19.053303423279345,-5.3220505224952115,-2.099750857534078,15.793166987218646,2.1317574590126034,-0.9878019183047694,-5.463478989733348,-1.1772957863394669,0.5481134442580052,1.9924369868943135,-7.05991369919392,1.1306538303806195,8.15694955838724,-0.6583962588910489,-3.1533857233019695,2.5947777992038294,7.569038322641171,-0.9635350046923923,-12.876722597181642,-2.0592240062936495,0.5503145634704082,-5.231715773060882,-6.984737682822534,1.2949075418008562,3.177142754088733,-2.778650658018562,-1.5552033346583767,-1.6110167411110765,5.231164741373517,1.458272895169848
